14 10
바람 0.017257767 -0.017549431 -0.01925782 -0.022840822 -0.025323 -0.02218417 -0.03399105 -0.048191026 0.0037888214 0.0439296
나 -0.029115515 0.008717888 0.04187991 -0.0040072436 0.027157178 0.008635305 0.04646421 0.02638855 0.021611491 0.048176475
별 0.0011379874 0.048914064 0.021755924 0.0054496867 -0.032091632 0.024025284 -0.031283535 0.043164395 0.012620548 0.01487226
날 0.010590322 -0.03166125 0.002975049 0.006422412 0.0016176095 -0.044673346 0.04025565 -0.03387712 0.045930654 0.017698327
하늘 0.029262792 -0.044273112 0.04042207 0.020761905 0.014334047 -0.007891447 0.016385773 0.0042757234 0.014666753 -0.04377871
점 -0.0035630106 -0.04341197 0.021924935 -0.04871479 0.04676698 0.028917562 0.018154236 -0.013460544 0.0454971 0.04458016
부끄럼 0.015792929 0.047736946 0.044708323 -0.008169135 0.047221705 -0.007910031 0.018055126 0.0289576 -0.0014134216 0.027283289
잎새 -0.013167953 -0.048459094 -0.028857669 0.023857439 0.0015995144 0.018771002 0.0015773108 -0.0007368161 -0.005181742 0.023860829
노래 0.017666884 -0.04264975 -0.014981741 -0.035912845 -0.013463151 -0.007463926 0.039906856 -0.019185854 -0.036989886 0.0138382185
마음 -0.0062240902 -0.004506226 -0.0426427 -0.01072525 0.013857464 0.047593284 -0.026758725 0.009044495 -0.011485201 0.026621718
것 0.036341798 0.015340485 0.02956916 0.0426226 -0.004903421 -0.0016337719 -0.019172769 0.010013163 0.008212099 -0.008276834
사랑 0.020451238 -0.040228136 -0.026006753 0.007538192 0.011335891 -0.045289982 0.011703928 0.03874188 -0.00809988 -0.024217742
길 0.02100047 0.034255136 -0.045539144 0.018956896 0.0062539703 -0.016430693 -0.023233356 -0.049908616 0.029153043 0.015172556
밤 0.035867456 -0.016035322 0.005486848 -0.03529162 -0.024383733 -0.010231762 0.031779367 0.011163492 0.0153420605 0.016892655
